digraph Tree {
node [shape=box, style="filled, rounded", color="black", fontname=helvetica] ;
edge [fontname=helvetica] ;
0 [label="petal length (cm) <= 2.6\ngini = 0.66\nsamples = 95\nvalue = [47, 56, 47]\nclass = versicolor", fillcolor="#eefdf4"] ;
1 [label="gini = 0.0\nsamples = 28\nvalue = [47, 0, 0]\nclass = setosa", fillcolor="#e58139"] ;
0 -> 1 [labeldistance=2.5, labelangle=45, headlabel="True"] ;
2 [label="petal length (cm) <= 4.75\ngini = 0.5\nsamples = 67\nvalue = [0, 56, 47]\nclass = versicolor", fillcolor="#dffbeb"] ;
0 -> 2 [labeldistance=2.5, labelangle=-45, headlabel="False"] ;
3 [label="sepal width (cm) <= 2.55\ngini = 0.07\nsamples = 32\nvalue = [0, 52, 2]\nclass = versicolor", fillcolor="#41e686"] ;
2 -> 3 ;
4 [label="sepal length (cm) <= 4.95\ngini = 0.23\nsamples = 10\nvalue = [0, 13, 2]\nclass = versicolor", fillcolor="#57e994"] ;
3 -> 4 ;
5 [label="petal length (cm) <= 3.9\ngini = 0.44\nsamples = 2\nvalue = [0, 1, 2]\nclass = virginica", fillcolor="#c09cf2"] ;
4 -> 5 ;
6 [label="gini = 0.0\nsamples = 1\nvalue = [0, 1, 0]\nclass = versicolor", fillcolor="#39e581"] ;
5 -> 6 ;
7 [label="gini = 0.0\nsamples = 1\nvalue = [0, 0, 2]\nclass = virginica", fillcolor="#8139e5"] ;
5 -> 7 ;
8 [label="gini = 0.0\nsamples = 8\nvalue = [0, 12, 0]\nclass = versicolor", fillcolor="#39e581"] ;
4 -> 8 ;
9 [label="gini = 0.0\nsamples = 22\nvalue = [0, 39, 0]\nclass = versicolor", fillcolor="#39e581"] ;
3 -> 9 ;
10 [label="petal length (cm) <= 4.95\ngini = 0.15\nsamples = 35\nvalue = [0, 4, 45]\nclass = virginica", fillcolor="#8c4be7"] ;
2 -> 10 ;
11 [label="sepal width (cm) <= 3.05\ngini = 0.48\nsamples = 9\nvalue = [0, 4, 6]\nclass = virginica", fillcolor="#d5bdf6"] ;
10 -> 11 ;
12 [label="petal width (cm) <= 1.65\ngini = 0.38\nsamples = 7\nvalue = [0, 2, 6]\nclass = virginica", fillcolor="#ab7bee"] ;
11 -> 12 ;
13 [label="gini = 0.0\nsamples = 2\nvalue = [0, 2, 0]\nclass = versicolor", fillcolor="#39e581"] ;
12 -> 13 ;
14 [label="gini = 0.0\nsamples = 5\nvalue = [0, 0, 6]\nclass = virginica", fillcolor="#8139e5"] ;
12 -> 14 ;
15 [label="gini = 0.0\nsamples = 2\nvalue = [0, 2, 0]\nclass = versicolor", fillcolor="#39e581"] ;
11 -> 15 ;
16 [label="gini = 0.0\nsamples = 26\nvalue = [0, 0, 39]\nclass = virginica", fillcolor="#8139e5"] ;
10 -> 16 ;
}